{"settings": {"LAST_DATE_IN_TRAIN_SET": "2020-11-30", "LAST_DATE_IN_VAL_SET": "2020-12-31", "FILTER_SIZE_UNEMPLOYMENT": 600, "SIMILARITY_REGULARIZATION_UNEMPLOYMENT": 0.5, "SIMILARITY_REGULARIZATION_SIR": 1.0, "env": {"economic_reward_crra_eta": 2, "start_date": "2020-03-22", "infection_too_sick_to_work_rate": 0.1, "pop_between_age_18_65": 0.6, "risk_free_interest_rate": 0.03}}, "BETA_DELAY": 29, "BETA_SLOPES": [-0.005233703270905861, -0.0025096633588151916, -0.009978235905460415, -0.0030498590463604695, -0.009739434907947386, -0.016118405619767906, -0.02216394155353909, -0.01501269383871521, -0.01772321933003828, -0.0035091211514514035, -0.00842426615392502, -0.006421715854186978, -0.007605442605186503, -0.013145828895296467, -0.013021772081998916, -0.011242043826411524, -0.009583325687728843, -0.007332846816941151, -0.012677925062908617, -0.010726278623401973, -0.01320149654376923, -0.020049202898711607, -0.020079903692931216, -0.012961592439659947, -0.009660688484644651, -0.01197325796370973, -0.0031953183140946543, -0.011219460393603341, -0.01161877928285559, -0.010572606153577992, -0.021402323448902912, -0.011571328478690551, -0.015057575233879374, -0.011653349301328355, -0.01420212156352489, -0.015437622231824741, -0.01247166799443816, -0.009058745964208309, -0.016065672658303675, -0.015379928352481361, -0.004690098051335516, -0.0027855147080954887, -0.0017843204990313376, -0.006520659060682759, -0.008618617017313706, -0.011942638319771232, -0.009076932750326299, -0.005580847854404909, -0.01311747891796651, -0.008677318047675145, -0.009906449614086134], "BETA_INTERCEPTS": [0.10550336869678541, 0.09352399879913631, 0.13367068043188485, 0.10161651854073984, 0.1457722708748621, 0.16887787187410597, 0.21729992109816224, 0.17450455331397685, 0.18931639275182566, 0.09984961233900469, 0.12133822448461924, 0.12722467531413584, 0.12175264651385272, 0.1552042495807431, 0.145615506170138, 0.1258875328197989, 0.13389493026715132, 0.1254821302501782, 0.14642572151467384, 0.1563475618087581, 0.16032143059458762, 0.19910298878230218, 0.18446412122461148, 0.15385189814506917, 0.1302208274241928, 0.13736418751161014, 0.1033837852314781, 0.13692185665344278, 0.14309430680693005, 0.13749187639644195, 0.19973224088216823, 0.17203054106935328, 0.18082127751622276, 0.15117289048468205, 0.14160189224730083, 0.17488934332776923, 0.1338827960870001, 0.13066194254313895, 0.17067714865126077, 0.18532521741844085, 0.10703810005198379, 0.09841913100945021, 0.09289613699392442, 0.11940190498430303, 0.12161571930284992, 0.1285837104949546, 0.12668802839364063, 0.10747537477804284, 0.1625164048222745, 0.12008200309258711, 0.13872464377603697], "POLICY_START_DATE": "2020-01-01", "FILTER_LEN": 600, "CONV_LAMBDAS": [27.72427749633789, 62.91925048828125, 129.2318572998047, 264.43182373046875, 542.06005859375], "UNEMPLOYMENT_BIAS": [2.1136703491210938, 4.048089027404785, 4.277402877807617, 3.6710152626037598, 4.371125221252441, 3.5259063243865967, 3.423633575439453, 3.4609005451202393, 4.390212535858154, 3.9631943702697754, 2.5867717266082764, 3.5042591094970703, 2.3830432891845703, 4.411620140075684, 2.3750250339508057, 2.5980374813079834, 2.2534663677215576, 2.4830000400543213, 4.428332805633545, 2.4989376068115234, 3.071929931640625, 1.8633426427841187, 4.299410820007324, 3.195344924926758, 4.691559791564941, 2.994248628616333, 3.1809568405151367, 2.121537923812866, 5.0345377922058105, 2.9758565425872803, 4.2665019035339355, 4.322226047515869, 3.248310089111328, 3.0009894371032715, 1.353360652923584, 3.418184280395508, 2.7211599349975586, 2.9320943355560303, 3.8583884239196777, 3.613877773284912, 1.6023359298706055, 2.3257055282592773, 4.022616863250732, 3.996405601501465, 1.5916776657104492, 2.3988192081451416, 3.0608890056610107, 4.039086818695068, 3.984750747680664, 2.440520763397217, 3.8146729469299316], "GROUPED_CONVOLUTIONAL_FILTER_WEIGHTS": [[[-0.8623685240745544]], [[-0.45006391406059265]], [[-0.00237645348533988]], [[0.8720516562461853]], [[1.3083926439285278]], [[-1.8319092988967896]], [[-0.0032714344561100006]], [[0.017020821571350098]], [[0.9376689195632935]], [[0.7846916913986206]], [[-0.634898841381073]], [[-0.39103013277053833]], [[0.765248715877533]], [[0.5142654180526733]], [[0.8652791380882263]], [[-0.9020224809646606]], [[0.2602136433124542]], [[0.2674458622932434]], [[0.6922929883003235]], [[0.28152236342430115]], [[-1.3684333562850952]], [[-1.136441707611084]], [[0.7635596990585327]], [[0.6395389437675476]], [[1.2692675590515137]], [[-1.3872078657150269]], [[-0.18349117040634155]], [[0.731469988822937]], [[0.4884212017059326]], [[0.7628554105758667]], [[-1.9923702478408813]], [[-0.7254942059516907]], [[0.6672083139419556]], [[0.7401175498962402]], [[0.8266059756278992]], [[-2.0412659645080566]], [[0.2596452832221985]], [[0.7648528814315796]], [[0.628707230091095]], [[0.564267098903656